digraph Tree {
node [shape=box] ;
0 [label="X[3] <= 0.8\ngini = 0.6606\nsamples = 100\nvalue = [28, 33, 39]"] ;
1 [label="gini = 0.0\nsamples = 28\nvalue = [28, 0, 0]"] ;
0 -> 1 [labeldistance=2.5, labelangle=45, headlabel="True"] ;
2 [label="X[3] <= 1.75\ngini = 0.4965\nsamples = 72\nvalue = [0, 33, 39]"] ;
0 -> 2 [labeldistance=2.5, labelangle=-45, headlabel="False"] ;
3 [label="X[2] <= 4.95\ngini = 0.2285\nsamples = 38\nvalue = [0, 33, 5]"] ;
2 -> 3 ;
4 [label="X[3] <= 1.65\ngini = 0.0605\nsamples = 32\nvalue = [0, 31, 1]"] ;
3 -> 4 ;
5 [label="gini = 0.0\nsamples = 31\nvalue = [0, 31, 0]"] ;
4 -> 5 ;
6 [label="gini = 0.0\nsamples = 1\nvalue = [0, 0, 1]"] ;
4 -> 6 ;
7 [label="X[3] <= 1.55\ngini = 0.4444\nsamples = 6\nvalue = [0, 2, 4]"] ;
3 -> 7 ;
8 [label="gini = 0.0\nsamples = 3\nvalue = [0, 0, 3]"] ;
7 -> 8 ;
9 [label="X[2] <= 5.45\ngini = 0.4444\nsamples = 3\nvalue = [0, 2, 1]"] ;
7 -> 9 ;
10 [label="gini = 0.0\nsamples = 2\nvalue = [0, 2, 0]"] ;
9 -> 10 ;
11 [label="gini = 0.0\nsamples = 1\nvalue = [0, 0, 1]"] ;
9 -> 11 ;
12 [label="gini = 0.0\nsamples = 34\nvalue = [0, 0, 34]"] ;
2 -> 12 ;
}